FANN_FLO_2.1
num_layers=3
learning_rate=0.700000
connection_rate=1.000000
network_type=0
learning_momentum=0.000000
training_algorithm=2
train_error_function=1
train_stop_function=0
cascade_output_change_fraction=0.010000
quickprop_decay=-0.000100
quickprop_mu=1.750000
rprop_increase_factor=1.200000
rprop_decrease_factor=0.500000
rprop_delta_min=0.000000
rprop_delta_max=50.000000
rprop_delta_zero=0.100000
cascade_output_stagnation_epochs=12
cascade_candidate_change_fraction=0.010000
cascade_candidate_stagnation_epochs=12
cascade_max_out_epochs=150
cascade_min_out_epochs=50
cascade_max_cand_epochs=150
cascade_min_cand_epochs=50
cascade_num_candidate_groups=2
bit_fail_limit=3.49999994039535522461e-01
cascade_candidate_limit=1.00000000000000000000e+03
cascade_weight_multiplier=4.00000005960464477539e-01
cascade_activation_functions_count=10
cascade_activation_functions=3 5 7 8 10 11 14 15 16 17 
cascade_activation_steepnesses_count=4
cascade_activation_steepnesses=2.50000000000000000000e-01 5.00000000000000000000e-01 7.50000000000000000000e-01 1.00000000000000000000e+00 
layer_sizes=12 14 2 
scale_included=0
neurons (num_inputs, activation_function, activation_steepness)=(0, 0, 0.00000000000000000000e+00) (0, 0, 0.00000000000000000000e+00) (0, 0, 0.00000000000000000000e+00) (0, 0, 0.00000000000000000000e+00) (0, 0, 0.00000000000000000000e+00) (0, 0, 0.00000000000000000000e+00) (0, 0, 0.00000000000000000000e+00) (0, 0, 0.00000000000000000000e+00) (0, 0, 0.00000000000000000000e+00) (0, 0, 0.00000000000000000000e+00) (0, 0, 0.00000000000000000000e+00) (0, 0, 0.00000000000000000000e+00) (12, 5, 5.00000000000000000000e-01) (12, 5, 5.00000000000000000000e-01) (12, 5, 5.00000000000000000000e-01) (12, 5, 5.00000000000000000000e-01) (12, 5, 5.00000000000000000000e-01) (12, 5, 5.00000000000000000000e-01) (12, 5, 5.00000000000000000000e-01) (12, 5, 5.00000000000000000000e-01) (12, 5, 5.00000000000000000000e-01) (12, 5, 5.00000000000000000000e-01) (12, 5, 5.00000000000000000000e-01) (12, 5, 5.00000000000000000000e-01) (12, 5, 5.00000000000000000000e-01) (0, 5, 0.00000000000000000000e+00) (14, 5, 5.00000000000000000000e-01) (0, 5, 0.00000000000000000000e+00) 
connections (connected_to_neuron, weight)=(0, 4.13228094577789306641e-01) (1, 1.41201519966125488281e+00) (2, -1.36806517839431762695e-01) (3, -6.79268240928649902344e-02) (4, 3.11120063066482543945e-01) (5, 1.34091758728027343750e+00) (6, -1.22057914733886718750e+00) (7, -3.52977842092514038086e-01) (8, -2.36327469348907470703e-01) (9, 4.44287151098251342773e-01) (10, -3.39492082595825195312e-01) (11, -6.84291005134582519531e-01) (0, 8.96578550338745117188e-01) (1, 5.09431399405002593994e-02) (2, 4.71674472093582153320e-01) (3, -2.60457068681716918945e-01) (4, 5.52482962608337402344e-01) (5, -3.64292889833450317383e-01) (6, 4.78918981552124023438e+00) (7, 5.67393541336059570312e-01) (8, -6.42332851886749267578e-01) (9, 6.05688383802771568298e-03) (10, -3.30326050519943237305e-01) (11, -2.48796746134757995605e-01) (0, 2.37641543149948120117e-01) (1, 1.41164321899414062500e+01) (2, -6.77584826946258544922e-01) (3, 6.49690687656402587891e-01) (4, 1.80877193808555603027e-01) (5, -2.70138454437255859375e+00) (6, 7.93488562107086181641e-01) (7, -9.22906696796417236328e-01) (8, 3.11569547653198242188e+00) (9, 5.75377821922302246094e-01) (10, -2.60561078786849975586e-01) (11, 4.71753597259521484375e+00) (0, 1.90704536437988281250e+00) (1, -4.04298335313796997070e-01) (2, -1.07986526489257812500e+01) (3, 3.19825291633605957031e-01) (4, -3.82201266288757324219e+00) (5, -4.91773694753646850586e-01) (6, -8.79276171326637268066e-02) (7, -1.39314997196197509766e+00) (8, -2.61020392179489135742e-01) (9, 4.30782377719879150391e-01) (10, -1.49781778454780578613e-01) (11, 1.97335824370384216309e-01) (0, 3.95933359861373901367e-01) (1, -6.61384701728820800781e-01) (2, -4.51815612614154815674e-02) (3, 1.55287945270538330078e+00) (4, 1.80668577551841735840e-01) (5, 1.34364585876464843750e+01) (6, -2.40624761581420898438e+00) (7, -9.23346102237701416016e-01) (8, 2.90005397796630859375e+00) (9, -4.21622228622436523438e+00) (10, -4.33432579040527343750e+00) (11, 2.30957776308059692383e-01) (0, -3.32748562097549438477e-01) (1, 1.36287912726402282715e-01) (2, 3.86851668357849121094e-01) (3, -3.36583089828491210938e+00) (4, -5.82618474960327148438e+00) (5, -1.26614674925804138184e-01) (6, -1.29866689443588256836e-01) (7, 1.01371355056762695312e+01) (8, -4.98418617248535156250e+00) (9, 1.10448300838470458984e+00) (10, -2.73546028137207031250e+00) (11, 2.39414826035499572754e-01) (0, 2.99304634332656860352e-01) (1, -1.25982761383056640625e+00) (2, -3.97201657295227050781e-01) (3, 1.69630393981933593750e+01) (4, 5.99214434623718261719e-01) (5, -9.12455916404724121094e-02) (6, -6.13008320331573486328e-01) (7, 2.73650318384170532227e-01) (8, -3.96204292774200439453e-01) (9, 3.22930717468261718750e+00) (10, -6.79573118686676025391e-01) (11, -1.84176489710807800293e-01) (0, 5.63288688659667968750e+00) (1, -1.76444494724273681641e+00) (2, -1.23551142215728759766e+00) (3, -5.06058394908905029297e-01) (4, -5.43390154838562011719e-01) (5, -4.92854785919189453125e+00) (6, 7.36383378505706787109e-01) (7, -3.26739788055419921875e-01) (8, 1.84927737712860107422e+00) (9, 7.98657655715942382812e-01) (10, -2.44221985340118408203e-01) (11, 3.30798894166946411133e-01) (0, -1.26201593875885009766e+00) (1, 6.14969348907470703125e+00) (2, -2.74599283933639526367e-01) (3, -1.34861016273498535156e+00) (4, 4.61333334445953369141e-01) (5, -3.69203299283981323242e-01) (6, 4.52164821326732635498e-02) (7, -1.60179153084754943848e-01) (8, 1.42738386988639831543e-01) (9, -6.98631620407104492188e+00) (10, -1.05319893360137939453e+00) (11, -1.58385145664215087891e+00) (0, 3.19862246513366699219e+00) (1, -4.59916025400161743164e-01) (2, -2.85260653495788574219e+00) (3, 2.39997610449790954590e-01) (4, -5.78527688980102539062e+00) (5, -9.08908545970916748047e-01) (6, 2.31727734208106994629e-01) (7, 1.75636444091796875000e+01) (8, -1.48149662017822265625e+01) (9, 9.70429182052612304688e-02) (10, 1.54849573969841003418e-01) (11, 1.21832978725433349609e+00) (0, 9.23832058906555175781e-01) (1, -7.35586762428283691406e-01) (2, 1.95854920893907546997e-02) (3, -8.68034660816192626953e-01) (4, -3.82256180047988891602e-01) (5, 2.17463612556457519531e-01) (6, -4.61681067943572998047e-01) (7, -5.15190773010253906250e+01) (8, 1.82234549522399902344e+00) (9, 6.06849789619445800781e-01) (10, 3.84619921445846557617e-01) (11, 4.80580553412437438965e-02) (0, -2.65537232160568237305e-01) (1, -1.84713825583457946777e-01) (2, -3.58667165040969848633e-01) (3, -6.69482424855232238770e-02) (4, -2.01344943046569824219e+00) (5, 1.11247038841247558594e+00) (6, -4.80675965547561645508e-01) (7, -6.60848796367645263672e-01) (8, 7.09883272647857666016e-01) (9, -1.58291876316070556641e+00) (10, -1.66061967611312866211e-02) (11, -2.68471956253051757812e-01) (0, -3.30818444490432739258e-01) (1, 9.59020614624023437500e-01) (2, -1.22750431299209594727e-01) (3, 1.56556189060211181641e+00) (4, 2.68013775348663330078e-01) (5, 5.82733249664306640625e+00) (6, -1.62286777496337890625e+01) (7, 4.50611859560012817383e-01) (8, 4.97525644302368164062e+00) (9, 3.40801805257797241211e-01) (10, -1.92211851477622985840e-01) (11, -3.53071421384811401367e-01) (12, 4.69534367322921752930e-01) (13, -5.81662952899932861328e-01) (14, 4.47381830215454101562e+00) (15, -5.41990816593170166016e-01) (16, 6.49641752243041992188e+00) (17, -5.50111889839172363281e-01) (18, 8.09086322784423828125e-01) (19, 1.16931691765785217285e-01) (20, -1.54744100570678710938e+01) (21, -5.06167316436767578125e+00) (22, 1.20574808120727539062e+00) (23, 3.48396599292755126953e-01) (24, -3.42696309089660644531e-01) (25, -4.75880652666091918945e-01) 
