FANN_FLO_2.1
num_layers=3
learning_rate=0.700000
connection_rate=1.000000
network_type=0
learning_momentum=0.000000
training_algorithm=2
train_error_function=1
train_stop_function=0
cascade_output_change_fraction=0.010000
quickprop_decay=-0.000100
quickprop_mu=1.750000
rprop_increase_factor=1.200000
rprop_decrease_factor=0.500000
rprop_delta_min=0.000000
rprop_delta_max=50.000000
rprop_delta_zero=0.100000
cascade_output_stagnation_epochs=12
cascade_candidate_change_fraction=0.010000
cascade_candidate_stagnation_epochs=12
cascade_max_out_epochs=150
cascade_min_out_epochs=50
cascade_max_cand_epochs=150
cascade_min_cand_epochs=50
cascade_num_candidate_groups=2
bit_fail_limit=3.49999994039535522461e-01
cascade_candidate_limit=1.00000000000000000000e+03
cascade_weight_multiplier=4.00000005960464477539e-01
cascade_activation_functions_count=10
cascade_activation_functions=3 5 7 8 10 11 14 15 16 17 
cascade_activation_steepnesses_count=4
cascade_activation_steepnesses=2.50000000000000000000e-01 5.00000000000000000000e-01 7.50000000000000000000e-01 1.00000000000000000000e+00 
layer_sizes=12 14 2 
scale_included=0
neurons (num_inputs, activation_function, activation_steepness)=(0, 0, 0.00000000000000000000e+00) (0, 0, 0.00000000000000000000e+00) (0, 0, 0.00000000000000000000e+00) (0, 0, 0.00000000000000000000e+00) (0, 0, 0.00000000000000000000e+00) (0, 0, 0.00000000000000000000e+00) (0, 0, 0.00000000000000000000e+00) (0, 0, 0.00000000000000000000e+00) (0, 0, 0.00000000000000000000e+00) (0, 0, 0.00000000000000000000e+00) (0, 0, 0.00000000000000000000e+00) (0, 0, 0.00000000000000000000e+00) (12, 5, 5.00000000000000000000e-01) (12, 5, 5.00000000000000000000e-01) (12, 5, 5.00000000000000000000e-01) (12, 5, 5.00000000000000000000e-01) (12, 5, 5.00000000000000000000e-01) (12, 5, 5.00000000000000000000e-01) (12, 5, 5.00000000000000000000e-01) (12, 5, 5.00000000000000000000e-01) (12, 5, 5.00000000000000000000e-01) (12, 5, 5.00000000000000000000e-01) (12, 5, 5.00000000000000000000e-01) (12, 5, 5.00000000000000000000e-01) (12, 5, 5.00000000000000000000e-01) (0, 5, 0.00000000000000000000e+00) (14, 5, 5.00000000000000000000e-01) (0, 5, 0.00000000000000000000e+00) 
connections (connected_to_neuron, weight)=(0, -1.45352467894554138184e-01) (1, 3.42278170585632324219e+00) (2, -1.29300606250762939453e+00) (3, 8.13576877117156982422e-01) (4, 1.47077484130859375000e+01) (5, 9.38002288341522216797e-01) (6, -4.70813810825347900391e-01) (7, -8.75675901770591735840e-02) (8, -2.41744256019592285156e+00) (9, 1.46005082130432128906e+00) (10, -1.44644629955291748047e+00) (11, 6.97016060352325439453e-01) (0, -7.81168639659881591797e-01) (1, 1.33439426422119140625e+01) (2, -1.54564842581748962402e-01) (3, -9.36056300997734069824e-02) (4, -1.82150810956954956055e-01) (5, -1.08007087707519531250e+01) (6, 4.72731292247772216797e-01) (7, 4.24532413482666015625e+00) (8, -4.43563938140869140625e-01) (9, 1.74382612109184265137e-01) (10, -6.09738767147064208984e-01) (11, -6.23585224151611328125e-01) (0, -1.17872500419616699219e+00) (1, 8.17363619804382324219e-01) (2, 1.59645285457372665405e-02) (3, 3.60023951530456542969e+00) (4, 3.44359904527664184570e-01) (5, 7.36559748649597167969e-01) (6, -1.14702069759368896484e+00) (7, -2.27747306823730468750e+01) (8, 1.08163034915924072266e+00) (9, -2.93939352035522460938e-01) (10, 1.32586598396301269531e-01) (11, 5.98106813430786132812e+00) (0, 1.23666501045227050781e+00) (1, -1.40492928028106689453e+00) (2, -1.87828034162521362305e-01) (3, -1.17464721202850341797e+00) (4, -6.96841239929199218750e-01) (5, -2.72944658994674682617e-01) (6, -2.61468386650085449219e+00) (7, 5.43736040592193603516e-01) (8, 7.36550271511077880859e-01) (9, -3.69380384683609008789e-01) (10, -4.80928421020507812500e-01) (11, 2.45448470115661621094e-01) (0, -7.77709901332855224609e-01) (1, 2.64419937133789062500e+00) (2, 4.92104005813598632812e+00) (3, -3.15425348281860351562e+00) (4, -4.68389183282852172852e-01) (5, -1.13315559387207031250e+02) (6, -5.29951286315917968750e+00) (7, 9.99052345752716064453e-01) (8, -4.32340919971466064453e-01) (9, -3.62254589796066284180e-01) (10, -8.05241644382476806641e-01) (11, -2.62202918529510498047e-01) (0, 1.47380053997039794922e-01) (1, 1.55920219421386718750e+00) (2, 1.43235981464385986328e+00) (3, 5.40666162967681884766e-01) (4, 1.15725028514862060547e+00) (5, -2.17134647369384765625e+01) (6, -2.93325877189636230469e+00) (7, 2.05647021532058715820e-01) (8, -2.11503133177757263184e-01) (9, 4.79394376277923583984e-01) (10, 9.88982021808624267578e-01) (11, 1.87982225418090820312e+00) (0, -2.73066103458404541016e-01) (1, 2.71199733018875122070e-01) (2, 9.97180044651031494141e-01) (3, -7.24877178668975830078e-01) (4, -1.29403972625732421875e+00) (5, 1.20803678035736083984e+00) (6, -2.11955738067626953125e+00) (7, 3.17689180374145507812e-01) (8, -3.45969378948211669922e-01) (9, 6.00696027278900146484e-01) (10, -1.24709343910217285156e+00) (11, 2.14926898479461669922e-02) (0, 5.57588264346122741699e-02) (1, -1.62716180086135864258e-01) (2, -5.18568634986877441406e-01) (3, -1.40979254245758056641e+00) (4, -6.40981078147888183594e-01) (5, 1.57479554414749145508e-01) (6, 2.53365725278854370117e-01) (7, 8.19432735443115234375e-02) (8, -5.13617813587188720703e-01) (9, -5.84826886653900146484e-01) (10, -7.22691565752029418945e-02) (11, -2.46533584594726562500e+00) (0, -2.17967033386230468750e-01) (1, -5.50230312347412109375e+00) (2, -7.09925711154937744141e-01) (3, -8.74845206737518310547e-01) (4, -4.09109622240066528320e-01) (5, -3.87974344193935394287e-02) (6, -7.07113519310951232910e-02) (7, -5.16237199306488037109e-01) (8, 3.67830038070678710938e-01) (9, 1.20187625288963317871e-01) (10, 5.55131256580352783203e-01) (11, 7.47296571731567382812e+00) (0, -7.94802248477935791016e-01) (1, 3.05896854400634765625e+00) (2, -5.22632718086242675781e-01) (3, 1.87496173381805419922e+00) (4, 1.72826538085937500000e+01) (5, 3.55476164817810058594e+00) (6, -5.94187319278717041016e-01) (7, 3.88370800018310546875e+00) (8, -1.66407614946365356445e-01) (9, -2.42903277277946472168e-01) (10, 3.97676348686218261719e-01) (11, 3.82814973592758178711e-01) (0, -3.60459059476852416992e-01) (1, -5.40346641540527343750e+01) (2, 6.62430095672607421875e+00) (3, 1.44060909748077392578e-01) (4, 1.30940747261047363281e+00) (5, 7.70399951934814453125e+00) (6, -2.21592140197753906250e+00) (7, -1.25246897339820861816e-01) (8, 1.32656230926513671875e+01) (9, 4.95722323656082153320e-01) (10, -1.00286948680877685547e+00) (11, -8.00681054592132568359e-01) (0, -6.20952069759368896484e-01) (1, 5.16255736351013183594e-01) (2, -3.84450197219848632812e-01) (3, -7.89506769180297851562e+00) (4, -1.98252588510513305664e-01) (5, 6.56025648117065429688e+00) (6, -3.20964783430099487305e-01) (7, -3.92383515834808349609e-01) (8, -3.63027620315551757812e+00) (9, 5.36939277648925781250e+01) (10, -2.31494426727294921875e+00) (11, 3.39167642593383789062e+00) (0, -4.41460877656936645508e-01) (1, 2.02758464813232421875e+01) (2, 3.50688099861145019531e-01) (3, -4.22114968299865722656e-01) (4, 4.70440673828125000000e+00) (5, -7.20718577504158020020e-02) (6, 5.45862376689910888672e-01) (7, 4.39225941896438598633e-01) (8, -2.38038849830627441406e+00) (9, -8.11143279075622558594e-01) (10, -1.19788122177124023438e+00) (11, -4.37620658874511718750e+01) (12, 1.02947938442230224609e+00) (13, -7.94770717620849609375e+00) (14, 1.02323925495147705078e+00) (15, -2.22995352745056152344e+00) (16, -3.68494319915771484375e+00) (17, 7.87830710411071777344e-01) (18, 1.17147326469421386719e+00) (19, 2.00691521167755126953e-01) (20, 6.82782745361328125000e+00) (21, 6.37836098670959472656e-01) (22, 1.21229505538940429688e+01) (23, -3.45106911659240722656e+00) (24, -6.75655269622802734375e+00) (25, 2.54313975572586059570e-01) 
