FANN_FLO_2.1
num_layers=3
learning_rate=0.700000
connection_rate=1.000000
network_type=0
learning_momentum=0.000000
training_algorithm=2
train_error_function=1
train_stop_function=0
cascade_output_change_fraction=0.010000
quickprop_decay=-0.000100
quickprop_mu=1.750000
rprop_increase_factor=1.200000
rprop_decrease_factor=0.500000
rprop_delta_min=0.000000
rprop_delta_max=50.000000
rprop_delta_zero=0.100000
cascade_output_stagnation_epochs=12
cascade_candidate_change_fraction=0.010000
cascade_candidate_stagnation_epochs=12
cascade_max_out_epochs=150
cascade_min_out_epochs=50
cascade_max_cand_epochs=150
cascade_min_cand_epochs=50
cascade_num_candidate_groups=2
bit_fail_limit=3.49999994039535522461e-01
cascade_candidate_limit=1.00000000000000000000e+03
cascade_weight_multiplier=4.00000005960464477539e-01
cascade_activation_functions_count=10
cascade_activation_functions=3 5 7 8 10 11 14 15 16 17 
cascade_activation_steepnesses_count=4
cascade_activation_steepnesses=2.50000000000000000000e-01 5.00000000000000000000e-01 7.50000000000000000000e-01 1.00000000000000000000e+00 
layer_sizes=12 14 2 
scale_included=0
neurons (num_inputs, activation_function, activation_steepness)=(0, 0, 0.00000000000000000000e+00) (0, 0, 0.00000000000000000000e+00) (0, 0, 0.00000000000000000000e+00) (0, 0, 0.00000000000000000000e+00) (0, 0, 0.00000000000000000000e+00) (0, 0, 0.00000000000000000000e+00) (0, 0, 0.00000000000000000000e+00) (0, 0, 0.00000000000000000000e+00) (0, 0, 0.00000000000000000000e+00) (0, 0, 0.00000000000000000000e+00) (0, 0, 0.00000000000000000000e+00) (0, 0, 0.00000000000000000000e+00) (12, 5, 5.00000000000000000000e-01) (12, 5, 5.00000000000000000000e-01) (12, 5, 5.00000000000000000000e-01) (12, 5, 5.00000000000000000000e-01) (12, 5, 5.00000000000000000000e-01) (12, 5, 5.00000000000000000000e-01) (12, 5, 5.00000000000000000000e-01) (12, 5, 5.00000000000000000000e-01) (12, 5, 5.00000000000000000000e-01) (12, 5, 5.00000000000000000000e-01) (12, 5, 5.00000000000000000000e-01) (12, 5, 5.00000000000000000000e-01) (12, 5, 5.00000000000000000000e-01) (0, 5, 0.00000000000000000000e+00) (14, 5, 5.00000000000000000000e-01) (0, 5, 0.00000000000000000000e+00) 
connections (connected_to_neuron, weight)=(0, -8.40492248535156250000e+00) (1, -7.38651394844055175781e-01) (2, 1.06358690261840820312e+01) (3, -5.14021873474121093750e-01) (4, 4.01325416564941406250e+00) (5, 1.82998847961425781250e+00) (6, 8.90905112028121948242e-02) (7, -3.32473725080490112305e-01) (8, 2.02769100666046142578e-01) (9, 4.38388317823410034180e-01) (10, 6.40143513679504394531e-01) (11, 3.81111800670623779297e-02) (0, 9.15150523185729980469e-01) (1, 1.32853209972381591797e-01) (2, 2.25732326507568359375e-02) (3, 6.31463289260864257812e-01) (4, -8.26988816261291503906e-01) (5, 3.02460432052612304688e+00) (6, 1.47340893745422363281e+00) (7, 3.68735879659652709961e-01) (8, 5.29346823692321777344e-01) (9, -5.33408284187316894531e-01) (10, 5.99217377603054046631e-02) (11, 4.09418314695358276367e-01) (0, -2.85432875156402587891e-01) (1, 2.13852429389953613281e+00) (2, 9.72806453704833984375e-01) (3, 1.71508872509002685547e+00) (4, 7.35909104347229003906e-01) (5, 3.72601819038391113281e+00) (6, -2.66042053699493408203e-01) (7, -1.05217587947845458984e+00) (8, -2.30625480413436889648e-01) (9, -1.08620252609252929688e+01) (10, -1.20373344421386718750e+00) (11, -1.07620418071746826172e-01) (0, -3.95719796419143676758e-01) (1, 1.85350745916366577148e-01) (2, -6.96064293384552001953e-01) (3, -8.36820006370544433594e-01) (4, 1.62499949336051940918e-01) (5, -1.20075917243957519531e+00) (6, 4.74714010953903198242e-01) (7, 4.78311598300933837891e-01) (8, -2.81272745132446289062e+00) (9, -1.46104544401168823242e-01) (10, -6.99506700038909912109e-01) (11, -2.76727628707885742188e+00) (0, -2.21826106309890747070e-01) (1, -8.69210958480834960938e-01) (2, 9.97152388095855712891e-01) (3, -2.50739574432373046875e-01) (4, -1.04940307140350341797e+00) (5, 1.87331646680831909180e-01) (6, 4.58280473947525024414e-01) (7, -7.20053553581237792969e-01) (8, 1.50084629654884338379e-01) (9, -1.68697573244571685791e-02) (10, -7.98312366008758544922e-01) (11, 5.19343197345733642578e-01) (0, 5.11693656444549560547e-01) (1, 1.56723423004150390625e+01) (2, -4.37963628768920898438e+00) (3, -9.20652389526367187500e+00) (4, -1.73847162723541259766e+00) (5, -2.74241924285888671875e+00) (6, -1.61003851890563964844e+00) (7, 5.65873205661773681641e-01) (8, -1.12270474433898925781e+00) (9, -1.37536811828613281250e+00) (10, -4.45200324058532714844e-01) (11, -4.64462339878082275391e-01) (0, -1.47830560803413391113e-01) (1, 3.92178356647491455078e-01) (2, -9.28139805793762207031e-01) (3, -6.43985867500305175781e-01) (4, -1.88071715831756591797e+00) (5, 5.10711789131164550781e-01) (6, 1.34412443637847900391e+00) (7, 9.99054431915283203125e-01) (8, -3.15648818016052246094e+00) (9, -9.82299149036407470703e-02) (10, 6.22956812381744384766e-01) (11, -4.01031345129013061523e-01) (0, -6.70222759246826171875e-01) (1, 6.38800501823425292969e-01) (2, -2.87368088960647583008e-01) (3, -4.20646280050277709961e-01) (4, -4.26400870084762573242e-01) (5, 3.05282950401306152344e+00) (6, 2.91842281818389892578e-01) (7, 2.43478417396545410156e-01) (8, 8.98013412952423095703e-01) (9, -3.67633461952209472656e-01) (10, -5.66276454925537109375e+00) (11, -4.53276425600051879883e-01) (0, 6.34466111660003662109e-01) (1, -2.82313156127929687500e+01) (2, 3.78992408514022827148e-01) (3, 1.98498940467834472656e+00) (4, -3.30267012119293212891e-01) (5, -7.30184018611907958984e-02) (6, -1.33256599307060241699e-01) (7, -5.14753103256225585938e-01) (8, -6.55773401260375976562e-01) (9, 5.10180139541625976562e+00) (10, -2.51168221235275268555e-01) (11, 2.20865225791931152344e+00) (0, 9.90712344646453857422e-01) (1, 1.68066807091236114502e-02) (2, 6.97516620159149169922e-01) (3, -1.02113232016563415527e-01) (4, -9.51862335205078125000e-01) (5, -6.37239098548889160156e-01) (6, -9.87639650702476501465e-03) (7, -1.08202338218688964844e-01) (8, -1.46395713090896606445e-01) (9, 3.02127808332443237305e-01) (10, -1.56819137573242187500e+02) (11, 3.56900095939636230469e+00) (0, -3.81872892379760742188e-01) (1, 2.41775584220886230469e+00) (2, -9.50910508632659912109e-01) (3, -3.97716343402862548828e-01) (4, -3.72108757495880126953e-01) (5, -1.17968845367431640625e+00) (6, 7.01558768749237060547e-01) (7, 1.16571986675262451172e+00) (8, -2.42380881309509277344e+00) (9, 2.50951617956161499023e-01) (10, -6.88378453254699707031e-01) (11, -5.07854580879211425781e-01) (0, -1.04140274226665496826e-01) (1, -1.15850937366485595703e+00) (2, 1.07104301452636718750e+00) (3, 6.11813217401504516602e-02) (4, -5.33643603324890136719e-01) (5, 7.63134419918060302734e-01) (6, 2.50580966472625732422e-01) (7, 1.18254387378692626953e+00) (8, 1.44441306591033935547e-01) (9, -1.88874632120132446289e-01) (10, -1.12005794048309326172e+00) (11, -3.07561010122299194336e-01) (0, 1.87838543206453323364e-02) (1, 7.99266159534454345703e-01) (2, 2.66618400812149047852e-01) (3, -2.79764175415039062500e-01) (4, -3.99576306343078613281e-01) (5, -8.98971378803253173828e-01) (6, 4.87199276685714721680e-01) (7, -5.19944988191127777100e-02) (8, 3.11307430267333984375e-01) (9, 3.05588397979736328125e+01) (10, 9.36044514179229736328e-01) (11, 1.39019918441772460938e+00) (12, -4.03947085142135620117e-01) (13, -3.37407797574996948242e-01) (14, -1.37712642550468444824e-01) (15, -2.12921404838562011719e+00) (16, 5.49114167690277099609e-01) (17, -8.38642692565917968750e+00) (18, -3.03622126579284667969e+00) (19, 8.98260414600372314453e-01) (20, 1.10650229454040527344e+00) (21, 1.48870873451232910156e+00) (22, -2.19497203826904296875e+01) (23, -1.53580576181411743164e-01) (24, -1.31090015172958374023e-01) (25, 6.73113226890563964844e-01) 
