FANN_FLO_2.1
num_layers=4
learning_rate=0.700000
connection_rate=1.000000
network_type=0
learning_momentum=0.000000
training_algorithm=2
train_error_function=1
train_stop_function=0
cascade_output_change_fraction=0.010000
quickprop_decay=-0.000100
quickprop_mu=1.750000
rprop_increase_factor=1.200000
rprop_decrease_factor=0.500000
rprop_delta_min=0.000000
rprop_delta_max=50.000000
rprop_delta_zero=0.100000
cascade_output_stagnation_epochs=12
cascade_candidate_change_fraction=0.010000
cascade_candidate_stagnation_epochs=12
cascade_max_out_epochs=150
cascade_min_out_epochs=50
cascade_max_cand_epochs=150
cascade_min_cand_epochs=50
cascade_num_candidate_groups=2
bit_fail_limit=3.49999994039535522461e-01
cascade_candidate_limit=1.00000000000000000000e+03
cascade_weight_multiplier=4.00000005960464477539e-01
cascade_activation_functions_count=10
cascade_activation_functions=3 5 7 8 10 11 14 15 16 17 
cascade_activation_steepnesses_count=4
cascade_activation_steepnesses=2.50000000000000000000e-01 5.00000000000000000000e-01 7.50000000000000000000e-01 1.00000000000000000000e+00 
layer_sizes=18 11 7 5 
scale_included=0
neurons (num_inputs, activation_function, activation_steepness)=(0, 0, 0.00000000000000000000e+00) (0, 0, 0.00000000000000000000e+00) (0, 0, 0.00000000000000000000e+00) (0, 0, 0.00000000000000000000e+00) (0, 0, 0.00000000000000000000e+00) (0, 0, 0.00000000000000000000e+00) (0, 0, 0.00000000000000000000e+00) (0, 0, 0.00000000000000000000e+00) (0, 0, 0.00000000000000000000e+00) (0, 0, 0.00000000000000000000e+00) (0, 0, 0.00000000000000000000e+00) (0, 0, 0.00000000000000000000e+00) (0, 0, 0.00000000000000000000e+00) (0, 0, 0.00000000000000000000e+00) (0, 0, 0.00000000000000000000e+00) (0, 0, 0.00000000000000000000e+00) (0, 0, 0.00000000000000000000e+00) (0, 0, 0.00000000000000000000e+00) (18, 5, 5.00000000000000000000e-01) (18, 5, 5.00000000000000000000e-01) (18, 5, 5.00000000000000000000e-01) (18, 5, 5.00000000000000000000e-01) (18, 5, 5.00000000000000000000e-01) (18, 5, 5.00000000000000000000e-01) (18, 5, 5.00000000000000000000e-01) (18, 5, 5.00000000000000000000e-01) (18, 5, 5.00000000000000000000e-01) (18, 5, 5.00000000000000000000e-01) (0, 5, 0.00000000000000000000e+00) (11, 5, 5.00000000000000000000e-01) (11, 5, 5.00000000000000000000e-01) (11, 5, 5.00000000000000000000e-01) (11, 5, 5.00000000000000000000e-01) (11, 5, 5.00000000000000000000e-01) (11, 5, 5.00000000000000000000e-01) (0, 5, 0.00000000000000000000e+00) (7, 0, 5.00000000000000000000e-01) (7, 0, 5.00000000000000000000e-01) (7, 0, 5.00000000000000000000e-01) (7, 0, 5.00000000000000000000e-01) (0, 0, 0.00000000000000000000e+00) 
connections (connected_to_neuron, weight)=(0, -2.18750000000000000000e+00) (1, -1.87500000000000000000e+00) (2, 0.00000000000000000000e+00) (3, -1.87500000000000000000e+00) (4, -6.25000000000000000000e-01) (5, -3.43750000000000000000e+00) (6, -2.50000000000000000000e+00) (7, 2.50000000000000000000e+00) (8, 3.12500000000000000000e-01) (9, 9.37500000000000000000e-01) (10, -1.87500000000000000000e+00) (11, -9.37500000000000000000e-01) (12, 3.12500000000000000000e+00) (13, 4.37500000000000000000e+00) (14, 9.37500000000000000000e-01) (15, 9.37500000000000000000e-01) (16, -2.18750000000000000000e+00) (17, -1.25000000000000000000e+00) (0, 4.37500000000000000000e+00) (1, 1.25000000000000000000e+00) (2, -4.06250000000000000000e+00) (3, -1.87500000000000000000e+00) (4, 0.00000000000000000000e+00) (5, -1.25000000000000000000e+00) (6, -3.12500000000000000000e-01) (7, -4.06250000000000000000e+00) (8, -2.50000000000000000000e+00) (9, 3.12500000000000000000e+00) (10, 1.87500000000000000000e+00) (11, 6.25000000000000000000e-01) (12, 1.25000000000000000000e+00) (13, 4.37500000000000000000e+00) (14, -9.37500000000000000000e-01) (15, -3.12500000000000000000e+00) (16, -6.25000000000000000000e-01) (17, -2.18750000000000000000e+00) (0, 4.37500000000000000000e+00) (1, 2.18750000000000000000e+00) (2, 3.12500000000000000000e-01) (3, 2.18750000000000000000e+00) (4, 9.37500000000000000000e-01) (5, 3.75000000000000000000e+00) (6, -2.81250000000000000000e+00) (7, -1.25000000000000000000e+00) (8, -1.56250000000000000000e+00) (9, -2.50000000000000000000e+00) (10, 4.06250000000000000000e+00) (11, -3.43750000000000000000e+00) (12, 2.18750000000000000000e+00) (13, -2.50000000000000000000e+00) (14, 6.25000000000000000000e-01) (15, 4.06250000000000000000e+00) (16, 6.25000000000000000000e-01) (17, -3.12500000000000000000e-01) (0, -1.87500000000000000000e+00) (1, -3.75000000000000000000e+00) (2, 1.56250000000000000000e+00) (3, -1.87500000000000000000e+00) (4, -1.25000000000000000000e+00) (5, 2.18750000000000000000e+00) (6, -6.25000000000000000000e-01) (7, -3.43750000000000000000e+00) (8, 9.37500000000000000000e-01) (9, 9.37500000000000000000e-01) (10, -3.12500000000000000000e+00) (11, -3.12500000000000000000e+00) (12, -3.43750000000000000000e+00) (13, -3.75000000000000000000e+00) (14, -3.12500000000000000000e+00) (15, 1.25000000000000000000e+00) (16, 4.06250000000000000000e+00) (17, 4.37500000000000000000e+00) (0, 4.37500000000000000000e+00) (1, -6.25000000000000000000e-01) (2, 4.68750000000000000000e+00) (3, 4.68750000000000000000e+00) (4, -2.18750000000000000000e+00) (5, -4.06250000000000000000e+00) (6, -6.25000000000000000000e-01) (7, 2.18750000000000000000e+00) (8, 0.00000000000000000000e+00) (9, 2.81250000000000000000e+00) (10, -4.06250000000000000000e+00) (11, 6.25000000000000000000e-01) (12, -4.68750000000000000000e+00) (13, -9.37500000000000000000e-01) (14, 9.37500000000000000000e-01) (15, -2.50000000000000000000e+00) (16, 4.37500000000000000000e+00) (17, 0.00000000000000000000e+00) (0, -2.81250000000000000000e+00) (1, 4.68750000000000000000e+00) (2, -2.50000000000000000000e+00) (3, 4.68750000000000000000e+00) (4, 6.25000000000000000000e-01) (5, 1.87500000000000000000e+00) (6, -5.00000000000000000000e+00) (7, -4.68750000000000000000e+00) (8, -5.00000000000000000000e+00) (9, -5.00000000000000000000e+00) (10, 0.00000000000000000000e+00) (11, 1.25000000000000000000e+00) (12, 4.06250000000000000000e+00) (13, -4.06250000000000000000e+00) (14, 3.43750000000000000000e+00) (15, 0.00000000000000000000e+00) (16, 4.06250000000000000000e+00) (17, -1.25000000000000000000e+00) (0, -2.50000000000000000000e+00) (1, -2.18750000000000000000e+00) (2, -2.81250000000000000000e+00) (3, -2.81250000000000000000e+00) (4, -2.50000000000000000000e+00) (5, -3.75000000000000000000e+00) (6, 0.00000000000000000000e+00) (7, 6.25000000000000000000e-01) (8, -4.06250000000000000000e+00) (9, 4.06250000000000000000e+00) (10, 0.00000000000000000000e+00) (11, -1.87500000000000000000e+00) (12, 3.75000000000000000000e+00) (13, -2.81250000000000000000e+00) (14, -2.81250000000000000000e+00) (15, -1.25000000000000000000e+00) (16, -3.43750000000000000000e+00) (17, 1.56250000000000000000e+00) (0, 0.00000000000000000000e+00) (1, 3.12500000000000000000e-01) (2, -4.37500000000000000000e+00) (3, 3.75000000000000000000e+00) (4, -9.37500000000000000000e-01) (5, -1.56250000000000000000e+00) (6, -6.25000000000000000000e-01) (7, 4.68750000000000000000e+00) (8, -2.81250000000000000000e+00) (9, -6.25000000000000000000e-01) (10, 1.56250000000000000000e+00) (11, -2.18750000000000000000e+00) (12, -2.50000000000000000000e+00) (13, 3.75000000000000000000e+00) (14, -1.56250000000000000000e+00) (15, -1.56250000000000000000e+00) (16, 3.75000000000000000000e+00) (17, 2.50000000000000000000e+00) (0, -2.81250000000000000000e+00) (1, -1.87500000000000000000e+00) (2, -1.56250000000000000000e+00) (3, 4.06250000000000000000e+00) (4, 1.87500000000000000000e+00) (5, 4.37500000000000000000e+00) (6, -2.81250000000000000000e+00) (7, 3.12500000000000000000e-01) (8, -2.18750000000000000000e+00) (9, 4.06250000000000000000e+00) (10, 4.37500000000000000000e+00) (11, -6.25000000000000000000e-01) (12, -4.06250000000000000000e+00) (13, 3.75000000000000000000e+00) (14, -4.06250000000000000000e+00) (15, -4.06250000000000000000e+00) (16, 3.75000000000000000000e+00) (17, -2.50000000000000000000e+00) (0, 9.37500000000000000000e-01) (1, -5.00000000000000000000e+00) (2, -3.12500000000000000000e+00) (3, 4.37500000000000000000e+00) (4, 4.06250000000000000000e+00) (5, 4.06250000000000000000e+00) (6, 3.12500000000000000000e+00) (7, -2.50000000000000000000e+00) (8, -3.75000000000000000000e+00) (9, -3.12500000000000000000e+00) (10, 3.12500000000000000000e+00) (11, -9.37500000000000000000e-01) (12, -1.87500000000000000000e+00) (13, 4.37500000000000000000e+00) (14, -1.87500000000000000000e+00) (15, 1.56250000000000000000e+00) (16, 0.00000000000000000000e+00) (17, -2.50000000000000000000e+00) (18, 3.12500000000000000000e-01) (19, -1.56250000000000000000e+00) (20, -4.06250000000000000000e+00) (21, -4.06250000000000000000e+00) (22, 0.00000000000000000000e+00) (23, 3.75000000000000000000e+00) (24, 2.81250000000000000000e+00) (25, -9.37500000000000000000e-01) (26, 4.37500000000000000000e+00) (27, 3.75000000000000000000e+00) (28, 3.43750000000000000000e+00) (18, 2.81250000000000000000e+00) (19, -1.87500000000000000000e+00) (20, -3.43750000000000000000e+00) (21, -4.68750000000000000000e+00) (22, 4.37500000000000000000e+00) (23, 3.12500000000000000000e+00) (24, -2.50000000000000000000e+00) (25, -1.87500000000000000000e+00) (26, -4.68750000000000000000e+00) (27, 2.18750000000000000000e+00) (28, 3.12500000000000000000e+00) (18, -4.68750000000000000000e+00) (19, -3.43750000000000000000e+00) (20, 0.00000000000000000000e+00) (21, 3.12500000000000000000e-01) (22, 2.50000000000000000000e+00) (23, 3.12500000000000000000e+00) (24, 2.50000000000000000000e+00) (25, 2.81250000000000000000e+00) (26, 3.12500000000000000000e-01) (27, 2.50000000000000000000e+00) (28, 2.50000000000000000000e+00) (18, 2.50000000000000000000e+00) (19, -1.25000000000000000000e+00) (20, -1.56250000000000000000e+00) (21, -2.18750000000000000000e+00) (22, -5.00000000000000000000e+00) (23, -1.56250000000000000000e+00) (24, 3.12500000000000000000e-01) (25, -2.18750000000000000000e+00) (26, 3.12500000000000000000e+00) (27, 3.43750000000000000000e+00) (28, 3.12500000000000000000e+00) (18, -3.75000000000000000000e+00) (19, 0.00000000000000000000e+00) (20, -2.18750000000000000000e+00) (21, -2.50000000000000000000e+00) (22, 3.12500000000000000000e-01) (23, 1.87500000000000000000e+00) (24, 3.12500000000000000000e-01) (25, 2.18750000000000000000e+00) (26, -1.87500000000000000000e+00) (27, 9.37500000000000000000e-01) (28, 0.00000000000000000000e+00) (18, 2.18750000000000000000e+00) (19, 2.18750000000000000000e+00) (20, -1.87500000000000000000e+00) (21, -5.00000000000000000000e+00) (22, 3.43750000000000000000e+00) (23, -1.87500000000000000000e+00) (24, 2.18750000000000000000e+00) (25, -4.68750000000000000000e+00) (26, 3.43750000000000000000e+00) (27, 2.50000000000000000000e+00) (28, -5.00000000000000000000e+00) (29, 3.12500000000000000000e-01) (30, 4.68750000000000000000e+00) (31, -5.00000000000000000000e+00) (32, -4.37500000000000000000e+00) (33, -5.00000000000000000000e+00) (34, 3.75000000000000000000e+00) (35, 9.37500000000000000000e-01) (29, 1.56250000000000000000e+00) (30, -4.37500000000000000000e+00) (31, -2.18750000000000000000e+00) (32, -2.81250000000000000000e+00) (33, 4.68750000000000000000e+00) (34, -2.50000000000000000000e+00) (35, -3.43750000000000000000e+00) (29, -2.81250000000000000000e+00) (30, 4.68750000000000000000e+00) (31, -2.50000000000000000000e+00) (32, 3.43750000000000000000e+00) (33, -3.43750000000000000000e+00) (34, 3.12500000000000000000e-01) (35, 1.56250000000000000000e+00) (29, 2.50000000000000000000e+00) (30, -3.12500000000000000000e-01) (31, 1.87500000000000000000e+00) (32, 3.75000000000000000000e+00) (33, 3.12500000000000000000e-01) (34, 3.43750000000000000000e+00) (35, 9.37500000000000000000e-01) 
