FANN_FLO_2.1
num_layers=3
learning_rate=0.700000
connection_rate=1.000000
network_type=0
learning_momentum=0.000000
training_algorithm=2
train_error_function=1
train_stop_function=0
cascade_output_change_fraction=0.010000
quickprop_decay=-0.000100
quickprop_mu=1.750000
rprop_increase_factor=1.200000
rprop_decrease_factor=0.500000
rprop_delta_min=0.000000
rprop_delta_max=50.000000
rprop_delta_zero=0.100000
cascade_output_stagnation_epochs=12
cascade_candidate_change_fraction=0.010000
cascade_candidate_stagnation_epochs=12
cascade_max_out_epochs=150
cascade_min_out_epochs=50
cascade_max_cand_epochs=150
cascade_min_cand_epochs=50
cascade_num_candidate_groups=2
bit_fail_limit=3.49999994039535522461e-01
cascade_candidate_limit=1.00000000000000000000e+03
cascade_weight_multiplier=4.00000005960464477539e-01
cascade_activation_functions_count=10
cascade_activation_functions=3 5 7 8 10 11 14 15 16 17 
cascade_activation_steepnesses_count=4
cascade_activation_steepnesses=2.50000000000000000000e-01 5.00000000000000000000e-01 7.50000000000000000000e-01 1.00000000000000000000e+00 
layer_sizes=8 11 2 
scale_included=0
neurons (num_inputs, activation_function, activation_steepness)=(0, 0, 0.00000000000000000000e+00) (0, 0, 0.00000000000000000000e+00) (0, 0, 0.00000000000000000000e+00) (0, 0, 0.00000000000000000000e+00) (0, 0, 0.00000000000000000000e+00) (0, 0, 0.00000000000000000000e+00) (0, 0, 0.00000000000000000000e+00) (0, 0, 0.00000000000000000000e+00) (8, 3, 5.00000000000000000000e-01) (8, 3, 5.00000000000000000000e-01) (8, 3, 5.00000000000000000000e-01) (8, 3, 5.00000000000000000000e-01) (8, 3, 5.00000000000000000000e-01) (8, 3, 5.00000000000000000000e-01) (8, 3, 5.00000000000000000000e-01) (8, 3, 5.00000000000000000000e-01) (8, 3, 5.00000000000000000000e-01) (8, 3, 5.00000000000000000000e-01) (0, 3, 0.00000000000000000000e+00) (11, 3, 5.00000000000000000000e-01) (0, 3, 0.00000000000000000000e+00) 
connections (connected_to_neuron, weight)=(0, 1.45513208007812500000e+03) (1, 1.45513208007812500000e+03) (2, 7.52114135742187500000e+02) (3, 1.40826428222656250000e+03) (4, -2.78978942871093750000e+02) (5, 9.86453491210937500000e+02) (6, -1.35693981933593750000e+03) (7, -5.13318237304687500000e+02) (0, 1.45513208007812500000e+03) (1, 1.45513208007812500000e+03) (2, -9.81996948242187500000e+02) (3, 1.40826428222656250000e+03) (4, -3.25846801757812500000e+02) (5, 1.45513208007812500000e+03) (6, 2.22827148437500000000e+00) (7, 3.30303344726562500000e+02) (0, 1.45513208007812500000e+03) (1, -1.49754345703125000000e+03) (2, 2.83435485839843750000e+02) (3, -1.35693981933593750000e+03) (4, -1.31007202148437500000e+03) (5, 1.03332128906250000000e+03) (6, 8.92717712402343750000e+02) (7, -1.02886474609375000000e+03) (0, 1.45513208007812500000e+03) (1, -1.49754345703125000000e+03) (2, 8.45849853515625000000e+02) (3, -1.35693981933593750000e+03) (4, -1.31007202148437500000e+03) (5, -4.19582519531250000000e+02) (6, -2.32111053466796875000e+02) (7, -1.40380773925781250000e+03) (0, 1.45513208007812500000e+03) (1, -1.49754345703125000000e+03) (2, 1.08018920898437500000e+03) (3, -2.78978942871093750000e+02) (4, -1.31007202148437500000e+03) (5, 2.83435485839843750000e+02) (6, -2.32111053466796875000e+02) (7, -1.45067553710937500000e+03) (0, 1.45513208007812500000e+03) (1, -1.49754345703125000000e+03) (2, -3.25846801757812500000e+02) (3, -2.32111053466796875000e+02) (4, -5.60186157226562500000e+02) (5, 4.70906921386718750000e+02) (6, 8.45849853515625000000e+02) (7, -2.78978942871093750000e+02) (0, 1.45513208007812500000e+03) (1, -1.49754345703125000000e+03) (2, -7.94525451660156250000e+02) (3, -1.26320410156250000000e+03) (4, -1.31007202148437500000e+03) (5, -9.15074615478515625000e+01) (6, -3.72714660644531250000e+02) (7, -1.16946838378906250000e+03) (0, 1.45513208007812500000e+03) (1, -1.49754345703125000000e+03) (2, -7.94525451660156250000e+02) (3, -1.02886474609375000000e+03) (4, -1.31007202148437500000e+03) (5, -1.85243194580078125000e+02) (6, -3.72714660644531250000e+02) (7, -1.45067553710937500000e+03) (0, 1.45513208007812500000e+03) (1, -1.49754345703125000000e+03) (2, -2.32111053466796875000e+02) (3, -1.16946838378906250000e+03) (4, -1.31007202148437500000e+03) (5, 1.42831878662109375000e+02) (6, -1.85243194580078125000e+02) (7, -1.45067553710937500000e+03) (0, 1.45513208007812500000e+03) (1, -1.49754345703125000000e+03) (2, 1.45513208007812500000e+03) (3, 1.03332128906250000000e+03) (4, -1.31007202148437500000e+03) (5, 8.45849853515625000000e+02) (6, -1.38375335693359375000e+02) (7, -8.88261169433593750000e+02) (8, -5.60186157226562500000e+02) (9, -2.78978942871093750000e+02) (10, 1.45513208007812500000e+03) (11, 1.45513208007812500000e+03) (12, 1.45513208007812500000e+03) (13, 4.90961380004882812500e+01) (14, 1.45513208007812500000e+03) (15, 1.45513208007812500000e+03) (16, 1.45513208007812500000e+03) (17, 6.11510559082031250000e+02) (18, 2.36567596435546875000e+02) 
