FANN_FLO_2.1
num_layers=3
learning_rate=0.700000
connection_rate=1.000000
network_type=0
learning_momentum=0.000000
training_algorithm=2
train_error_function=1
train_stop_function=0
cascade_output_change_fraction=0.010000
quickprop_decay=-0.000100
quickprop_mu=1.750000
rprop_increase_factor=1.200000
rprop_decrease_factor=0.500000
rprop_delta_min=0.000000
rprop_delta_max=50.000000
rprop_delta_zero=0.100000
cascade_output_stagnation_epochs=12
cascade_candidate_change_fraction=0.010000
cascade_candidate_stagnation_epochs=12
cascade_max_out_epochs=150
cascade_min_out_epochs=50
cascade_max_cand_epochs=150
cascade_min_cand_epochs=50
cascade_num_candidate_groups=2
bit_fail_limit=3.49999994039535522461e-01
cascade_candidate_limit=1.00000000000000000000e+03
cascade_weight_multiplier=4.00000005960464477539e-01
cascade_activation_functions_count=10
cascade_activation_functions=3 5 7 8 10 11 14 15 16 17 
cascade_activation_steepnesses_count=4
cascade_activation_steepnesses=2.50000000000000000000e-01 5.00000000000000000000e-01 7.50000000000000000000e-01 1.00000000000000000000e+00 
layer_sizes=10 14 2 
scale_included=0
neurons (num_inputs, activation_function, activation_steepness)=(0, 0, 0.00000000000000000000e+00) (0, 0, 0.00000000000000000000e+00) (0, 0, 0.00000000000000000000e+00) (0, 0, 0.00000000000000000000e+00) (0, 0, 0.00000000000000000000e+00) (0, 0, 0.00000000000000000000e+00) (0, 0, 0.00000000000000000000e+00) (0, 0, 0.00000000000000000000e+00) (0, 0, 0.00000000000000000000e+00) (0, 0, 0.00000000000000000000e+00) (10, 5, 5.00000000000000000000e-01) (10, 5, 5.00000000000000000000e-01) (10, 5, 5.00000000000000000000e-01) (10, 5, 5.00000000000000000000e-01) (10, 5, 5.00000000000000000000e-01) (10, 5, 5.00000000000000000000e-01) (10, 5, 5.00000000000000000000e-01) (10, 5, 5.00000000000000000000e-01) (10, 5, 5.00000000000000000000e-01) (10, 5, 5.00000000000000000000e-01) (10, 5, 5.00000000000000000000e-01) (10, 5, 5.00000000000000000000e-01) (10, 5, 5.00000000000000000000e-01) (0, 5, 0.00000000000000000000e+00) (14, 5, 5.00000000000000000000e-01) (0, 5, 0.00000000000000000000e+00) 
connections (connected_to_neuron, weight)=(0, 5.09244585037231445312e+00) (1, 1.42078787088394165039e-01) (2, -5.73759126663208007812e+00) (3, 3.62840604782104492188e+00) (4, 4.25510501861572265625e+00) (5, -2.14146661758422851562e+00) (6, -1.21366238594055175781e+00) (7, -2.33959054946899414062e+00) (8, 2.04576659202575683594e+00) (9, -1.13415069580078125000e+01) (0, 3.43994164466857910156e+00) (1, -1.49947059154510498047e+00) (2, 1.13932049274444580078e+00) (3, 3.58214569091796875000e+00) (4, 1.15958321094512939453e+00) (5, 1.56544482707977294922e+00) (6, -6.56255662441253662109e-01) (7, -5.14551937580108642578e-01) (8, 1.50891506671905517578e+00) (9, 6.40029728412628173828e-01) (0, 4.65928912162780761719e-01) (1, 4.49211359024047851562e+00) (2, 5.05654907226562500000e+00) (3, 6.90602588653564453125e+00) (4, -3.39689433574676513672e-01) (5, 3.40765166282653808594e+00) (6, 5.77893793582916259766e-01) (7, 1.19920480251312255859e+00) (8, 9.15792644023895263672e-01) (9, 3.34037184715270996094e+00) (0, -6.20972633361816406250e-01) (1, 5.93869924545288085938e-01) (2, -2.96778583526611328125e+00) (3, 1.30838108062744140625e+00) (4, 1.72979962825775146484e+00) (5, 1.99352800846099853516e+00) (6, -3.75377863645553588867e-01) (7, 2.33751937747001647949e-01) (8, -4.24199008941650390625e+00) (9, 5.12533807754516601562e+00) (0, 1.53123795986175537109e+00) (1, 9.65992629528045654297e-01) (2, 3.90299582481384277344e+00) (3, 2.35439038276672363281e+00) (4, 1.17487573623657226562e+00) (5, 1.27987444400787353516e+00) (6, -1.06613168716430664062e+01) (7, 5.09185266494750976562e+00) (8, 1.95460510253906250000e+00) (9, 9.59727227687835693359e-01) (0, 3.02420711517333984375e+00) (1, 5.76148450374603271484e-01) (2, 6.25010192394256591797e-01) (3, 2.33980989456176757812e+00) (4, 2.10185742378234863281e+00) (5, -9.43609833717346191406e-01) (6, 2.65897917747497558594e+00) (7, 6.52180314064025878906e-02) (8, -1.93619880676269531250e+01) (9, 2.50014829635620117188e+00) (0, 4.58499252796173095703e-01) (1, -6.91991472244262695312e+00) (2, 1.46785962581634521484e+00) (3, 3.89204382896423339844e+00) (4, -2.20742821693420410156e+00) (5, 2.08464837074279785156e+00) (6, 3.48600959777832031250e+00) (7, 1.77185571193695068359e+00) (8, 1.52109801769256591797e+00) (9, -6.14192664623260498047e-01) (0, 3.08953142166137695312e+00) (1, -9.17830839753150939941e-02) (2, 4.43035364151000976562e+00) (3, -4.84276103973388671875e+00) (4, 1.64222180843353271484e+00) (5, 2.21186518669128417969e+00) (6, 2.64904117584228515625e+00) (7, 4.55249404907226562500e+00) (8, 1.35607683658599853516e+00) (9, 3.12086319923400878906e+00) (0, 9.78045642375946044922e-01) (1, 2.74059462547302246094e+00) (2, 2.44375675916671752930e-01) (3, 1.10716259479522705078e+00) (4, 1.24267804622650146484e+00) (5, 3.92147779464721679688e+00) (6, 5.09418869018554687500e+00) (7, 1.34821760654449462891e+00) (8, 4.52120447158813476562e+00) (9, -1.97397351264953613281e-01) (0, -1.46024668216705322266e+00) (1, -5.11218404769897460938e+00) (2, 8.49024713039398193359e-01) (3, 2.97918939590454101562e+00) (4, -2.46987670660018920898e-01) (5, 2.82475352287292480469e-01) (6, -6.20603621006011962891e-01) (7, 8.22927832603454589844e-01) (8, 1.44066464900970458984e+00) (9, 3.70065546035766601562e+00) (0, 2.51229023933410644531e+00) (1, -3.16556382179260253906e+00) (2, 3.51358342170715332031e+00) (3, -2.38512921333312988281e+00) (4, 1.89820989966392517090e-01) (5, -5.23922348022460937500e+00) (6, 2.93111109733581542969e+00) (7, 5.99930584430694580078e-01) (8, -6.06924390792846679688e+00) (9, -6.21098995208740234375e-01) (0, 1.52559113502502441406e+00) (1, 2.35281491279602050781e+00) (2, 1.18938231468200683594e+00) (3, 4.75877344608306884766e-01) (4, 3.80284976959228515625e+00) (5, 1.35233652591705322266e+00) (6, -1.64637219905853271484e+00) (7, -5.70024538040161132812e+00) (8, -1.07039422988891601562e+01) (9, 1.95250809192657470703e+00) (0, 1.35460734367370605469e+00) (1, -7.08234739303588867188e+00) (2, -2.13575506210327148438e+00) (3, 9.48572397232055664062e-01) (4, 4.86815786361694335938e+00) (5, 2.04088854789733886719e+00) (6, 1.10782587528228759766e+00) (7, -3.50937891006469726562e+00) (8, 2.09368944168090820312e+00) (9, 4.41550463438034057617e-01) (10, 3.76308155059814453125e+00) (11, 4.75417947769165039062e+00) (12, 8.86882901191711425781e-01) (13, 1.83988320827484130859e+00) (14, 9.20125126838684082031e-01) (15, 1.72179555892944335938e+00) (16, 4.60096883773803710938e+00) (17, 1.14408469200134277344e+00) (18, -8.67437481880187988281e-01) (19, 5.84335565567016601562e+00) (20, 3.34963440895080566406e+00) (21, 1.70160567760467529297e+00) (22, 4.52569007873535156250e+00) (23, 2.38832879066467285156e+00) 
