FANN_FLO_2.1
num_layers=3
learning_rate=0.700000
connection_rate=1.000000
network_type=0
learning_momentum=0.000000
training_algorithm=2
train_error_function=1
train_stop_function=0
cascade_output_change_fraction=0.010000
quickprop_decay=-0.000100
quickprop_mu=1.750000
rprop_increase_factor=1.200000
rprop_decrease_factor=0.500000
rprop_delta_min=0.000000
rprop_delta_max=50.000000
rprop_delta_zero=0.100000
cascade_output_stagnation_epochs=12
cascade_candidate_change_fraction=0.010000
cascade_candidate_stagnation_epochs=12
cascade_max_out_epochs=150
cascade_min_out_epochs=50
cascade_max_cand_epochs=150
cascade_min_cand_epochs=50
cascade_num_candidate_groups=2
bit_fail_limit=3.49999994039535522461e-01
cascade_candidate_limit=1.00000000000000000000e+03
cascade_weight_multiplier=4.00000005960464477539e-01
cascade_activation_functions_count=10
cascade_activation_functions=3 5 7 8 10 11 14 15 16 17 
cascade_activation_steepnesses_count=4
cascade_activation_steepnesses=2.50000000000000000000e-01 5.00000000000000000000e-01 7.50000000000000000000e-01 1.00000000000000000000e+00 
layer_sizes=12 14 2 
scale_included=0
neurons (num_inputs, activation_function, activation_steepness)=(0, 0, 0.00000000000000000000e+00) (0, 0, 0.00000000000000000000e+00) (0, 0, 0.00000000000000000000e+00) (0, 0, 0.00000000000000000000e+00) (0, 0, 0.00000000000000000000e+00) (0, 0, 0.00000000000000000000e+00) (0, 0, 0.00000000000000000000e+00) (0, 0, 0.00000000000000000000e+00) (0, 0, 0.00000000000000000000e+00) (0, 0, 0.00000000000000000000e+00) (0, 0, 0.00000000000000000000e+00) (0, 0, 0.00000000000000000000e+00) (12, 5, 5.00000000000000000000e-01) (12, 5, 5.00000000000000000000e-01) (12, 5, 5.00000000000000000000e-01) (12, 5, 5.00000000000000000000e-01) (12, 5, 5.00000000000000000000e-01) (12, 5, 5.00000000000000000000e-01) (12, 5, 5.00000000000000000000e-01) (12, 5, 5.00000000000000000000e-01) (12, 5, 5.00000000000000000000e-01) (12, 5, 5.00000000000000000000e-01) (12, 5, 5.00000000000000000000e-01) (12, 5, 5.00000000000000000000e-01) (12, 5, 5.00000000000000000000e-01) (0, 5, 0.00000000000000000000e+00) (14, 5, 5.00000000000000000000e-01) (0, 5, 0.00000000000000000000e+00) 
connections (connected_to_neuron, weight)=(0, 2.26953244209289550781e+00) (1, -1.79411268234252929688e+00) (2, -5.38359308242797851562e+00) (3, 2.16701698303222656250e+00) (4, 2.46701455116271972656e+00) (5, -2.77906179428100585938e-01) (6, 4.22861576080322265625e-01) (7, -1.43475747108459472656e+00) (8, 3.03175020217895507812e+00) (9, 5.90206801891326904297e-01) (10, -3.67432069778442382812e+00) (11, -5.85802459716796875000e+00) (0, 2.91627264022827148438e+00) (1, 2.50653004646301269531e+00) (2, 1.05770111083984375000e+00) (3, -1.00005829334259033203e+00) (4, -3.45083808898925781250e+00) (5, -4.99361343681812286377e-02) (6, -6.97444260120391845703e-01) (7, -2.98482465744018554688e+00) (8, -7.52826750278472900391e-01) (9, -3.34712505340576171875e-01) (10, 1.84857141971588134766e+00) (11, -6.63577079772949218750e-01) (0, -2.30154681205749511719e+00) (1, 2.45162153244018554688e+00) (2, 1.40117597579956054688e+00) (3, -3.49480223655700683594e+00) (4, 3.67170858383178710938e+00) (5, -1.30285763740539550781e+00) (6, 9.35173988342285156250e-01) (7, -4.56110179424285888672e-01) (8, -3.84481739997863769531e+00) (9, -4.05796527862548828125e+00) (10, -3.40066599845886230469e+00) (11, -9.85415756702423095703e-01) (0, 8.03285121917724609375e-01) (1, 5.05051076412200927734e-01) (2, 4.23869323730468750000e+00) (3, 2.40250259637832641602e-01) (4, 6.33727788925170898438e-01) (5, 4.39887237548828125000e+00) (6, 1.19613611698150634766e+00) (7, -2.44704246520996093750e+00) (8, 6.94036602973937988281e-01) (9, -5.68983697891235351562e+00) (10, -1.47560644149780273438e+00) (11, 2.40023541450500488281e+00) (0, 5.33003091812133789062e-01) (1, 7.80731797218322753906e-01) (2, 1.32568919658660888672e+00) (3, -4.06164646148681640625e+00) (4, 3.94947147369384765625e+00) (5, -2.76358652114868164062e+00) (6, -7.99638748168945312500e+00) (7, 4.51628160476684570312e+00) (8, -6.13380558788776397705e-02) (9, -3.20864415168762207031e+00) (10, 4.12965965270996093750e+00) (11, -5.61346292495727539062e-01) (0, 1.83886575698852539062e+00) (1, 3.09021329879760742188e+00) (2, 1.77933418750762939453e+00) (3, 1.75134599208831787109e+00) (4, 7.72400796413421630859e-01) (5, 1.09481906890869140625e+00) (6, -6.79759120941162109375e+00) (7, -3.07126426696777343750e+00) (8, 1.30638575553894042969e+00) (9, 1.88912129402160644531e+00) (10, -3.98747444152832031250e+00) (11, 2.83063292503356933594e+00) (0, -4.30071592330932617188e+00) (1, -7.08259880542755126953e-01) (2, 5.03461182117462158203e-01) (3, 3.02621901035308837891e-01) (4, -3.56385684013366699219e+00) (5, 1.09731233119964599609e+00) (6, -4.46502529084682464600e-02) (7, 1.85264205932617187500e+00) (8, 1.30521392822265625000e+00) (9, -1.53012204170227050781e+00) (10, -2.51633137464523315430e-01) (11, -3.34745311737060546875e+00) (0, -9.67773377895355224609e-01) (1, -9.70501244068145751953e-01) (2, 3.41551160812377929688e+00) (3, -1.80882334709167480469e+00) (4, -1.15393483638763427734e+00) (5, -8.83593261241912841797e-01) (6, -5.67581796646118164062e+00) (7, -2.22180175781250000000e+00) (8, 2.00050544738769531250e+00) (9, -8.13950419425964355469e-01) (10, -2.51686286926269531250e+00) (11, 3.73723626136779785156e-01) (0, 6.15831804275512695312e+00) (1, 3.84392708539962768555e-01) (2, 2.89959573745727539062e+00) (3, 1.82478690147399902344e+00) (4, 2.14064502716064453125e+00) (5, 2.77164220809936523438e+00) (6, -2.43972253799438476562e+00) (7, -6.95585668087005615234e-01) (8, -2.31963205337524414062e+00) (9, -7.64617502689361572266e-01) (10, -7.75780916213989257812e-01) (11, 1.02009892463684082031e+00) (0, 3.38520789146423339844e+00) (1, 7.26388633251190185547e-01) (2, -1.73771351575851440430e-01) (3, 9.36557865142822265625e+00) (4, -7.34690856933593750000e+00) (5, 5.31998777389526367188e+00) (6, 2.20142149925231933594e+00) (7, -2.30209589004516601562e+00) (8, 5.31966829299926757812e+00) (9, 6.15715272724628448486e-02) (10, 2.64626002311706542969e+00) (11, 2.93407893180847167969e+00) (0, -3.60903573036193847656e+00) (1, 1.04814815521240234375e+01) (2, 1.60721576213836669922e+00) (3, 2.04498261213302612305e-01) (4, -3.87754726409912109375e+00) (5, -6.62964582443237304688e-01) (6, 3.10865688323974609375e+00) (7, 1.20638179779052734375e+00) (8, -2.67970252037048339844e+00) (9, -3.32604825496673583984e-01) (10, -2.41586256027221679688e+00) (11, -3.01337027549743652344e+00) (0, -2.06653447821736335754e-03) (1, 3.14719128608703613281e+00) (2, -1.93991112709045410156e+00) (3, -4.46164798736572265625e+00) (4, -1.25052475929260253906e+00) (5, 5.52426910400390625000e+00) (6, -1.65875661373138427734e+00) (7, -2.51155352592468261719e+00) (8, 2.52140378952026367188e+00) (9, -3.35834980010986328125e+00) (10, -2.55139112472534179688e+00) (11, -4.22671556472778320312e+00) (0, 4.34055179357528686523e-01) (1, -7.49391412734985351562e+00) (2, 2.18399167060852050781e+00) (3, 2.16199946403503417969e+00) (4, 2.52839732170104980469e+00) (5, 2.42674326896667480469e+00) (6, 6.54701888561248779297e-01) (7, -1.06604921817779541016e+00) (8, 2.63998746871948242188e+00) (9, -4.03384640812873840332e-02) (10, -5.76907062530517578125e+00) (11, -1.26020205020904541016e+00) (12, -1.42736244201660156250e+00) (13, 2.40300631523132324219e+00) (14, -3.11181354522705078125e+00) (15, 3.24425148963928222656e+00) (16, -1.65576148033142089844e+00) (17, 8.70031118392944335938e-01) (18, -1.73218885902315378189e-03) (19, -2.64566230773925781250e+00) (20, 2.45127272605895996094e+00) (21, -6.33515775203704833984e-01) (22, -6.61416196823120117188e+00) (23, -2.24987173080444335938e+00) (24, 6.61239814758300781250e+00) (25, -5.57253956794738769531e-01) 
