FANN_FLO_2.1
num_layers=3
learning_rate=0.700000
connection_rate=1.000000
network_type=0
learning_momentum=0.000000
training_algorithm=2
train_error_function=1
train_stop_function=0
cascade_output_change_fraction=0.010000
quickprop_decay=-0.000100
quickprop_mu=1.750000
rprop_increase_factor=1.200000
rprop_decrease_factor=0.500000
rprop_delta_min=0.000000
rprop_delta_max=50.000000
rprop_delta_zero=0.100000
cascade_output_stagnation_epochs=12
cascade_candidate_change_fraction=0.010000
cascade_candidate_stagnation_epochs=12
cascade_max_out_epochs=150
cascade_min_out_epochs=50
cascade_max_cand_epochs=150
cascade_min_cand_epochs=50
cascade_num_candidate_groups=2
bit_fail_limit=3.49999994039535522461e-01
cascade_candidate_limit=1.00000000000000000000e+03
cascade_weight_multiplier=4.00000005960464477539e-01
cascade_activation_functions_count=10
cascade_activation_functions=3 5 7 8 10 11 14 15 16 17 
cascade_activation_steepnesses_count=4
cascade_activation_steepnesses=2.50000000000000000000e-01 5.00000000000000000000e-01 7.50000000000000000000e-01 1.00000000000000000000e+00 
layer_sizes=12 14 2 
scale_included=0
neurons (num_inputs, activation_function, activation_steepness)=(0, 0, 0.00000000000000000000e+00) (0, 0, 0.00000000000000000000e+00) (0, 0, 0.00000000000000000000e+00) (0, 0, 0.00000000000000000000e+00) (0, 0, 0.00000000000000000000e+00) (0, 0, 0.00000000000000000000e+00) (0, 0, 0.00000000000000000000e+00) (0, 0, 0.00000000000000000000e+00) (0, 0, 0.00000000000000000000e+00) (0, 0, 0.00000000000000000000e+00) (0, 0, 0.00000000000000000000e+00) (0, 0, 0.00000000000000000000e+00) (12, 5, 5.00000000000000000000e-01) (12, 5, 5.00000000000000000000e-01) (12, 5, 5.00000000000000000000e-01) (12, 5, 5.00000000000000000000e-01) (12, 5, 5.00000000000000000000e-01) (12, 5, 5.00000000000000000000e-01) (12, 5, 5.00000000000000000000e-01) (12, 5, 5.00000000000000000000e-01) (12, 5, 5.00000000000000000000e-01) (12, 5, 5.00000000000000000000e-01) (12, 5, 5.00000000000000000000e-01) (12, 5, 5.00000000000000000000e-01) (12, 5, 5.00000000000000000000e-01) (0, 5, 0.00000000000000000000e+00) (14, 5, 5.00000000000000000000e-01) (0, 5, 0.00000000000000000000e+00) 
connections (connected_to_neuron, weight)=(0, -1.64803540706634521484e+00) (1, 3.30599665641784667969e+00) (2, 1.63932725787162780762e-01) (3, -1.37827343750000000000e+03) (4, 4.92022007703781127930e-01) (5, -6.47099065780639648438e+00) (6, 2.13134622573852539062e+00) (7, -2.42082253098487854004e-01) (8, 4.59989756345748901367e-01) (9, -6.78125715255737304688e+00) (10, -2.66175866127014160156e+00) (11, 1.61109948158264160156e+00) (0, -1.41977596282958984375e+01) (1, 5.29087245464324951172e-01) (2, -6.76211118698120117188e+00) (3, -1.94127712249755859375e+01) (4, 5.48276364803314208984e-01) (5, 9.16216850280761718750e+00) (6, 4.48243260383605957031e-01) (7, -3.35854560136795043945e-01) (8, -2.26940378546714782715e-01) (9, 1.24665498733520507812e+00) (10, 4.39250349998474121094e-01) (11, -7.84594535827636718750e+00) (0, -1.04471135139465332031e+00) (1, -4.90807980298995971680e-01) (2, 3.16920191049575805664e-01) (3, -6.17586612701416015625e+00) (4, -3.45104247331619262695e-01) (5, -8.29874873161315917969e-01) (6, -5.75742065906524658203e-01) (7, -4.93004500865936279297e-01) (8, -1.64277124404907226562e+00) (9, -2.79313307255506515503e-02) (10, -6.04041278362274169922e-01) (11, -2.02386155724525451660e-01) (0, 2.02051877975463867188e-01) (1, 1.55034923553466796875e+00) (2, -6.61205453798174858093e-03) (3, -4.11901891231536865234e-01) (4, 1.13355875015258789062e+00) (5, -8.02112758159637451172e-01) (6, -1.17926466464996337891e+00) (7, -6.55755460262298583984e-01) (8, 2.42172932624816894531e+00) (9, 6.92886829376220703125e-01) (10, -5.58114349842071533203e-01) (11, -4.76278245449066162109e-01) (0, -2.56145875900983810425e-02) (1, 1.51280605792999267578e+00) (2, -6.42036914825439453125e-01) (3, -2.42015019059181213379e-01) (4, -2.27547317743301391602e-01) (5, -3.45828264951705932617e-01) (6, -3.21247428655624389648e-01) (7, -9.47154521942138671875e-01) (8, -8.37737917900085449219e-01) (9, -1.57839548587799072266e+00) (10, 1.00544738769531250000e+00) (11, -4.17345136404037475586e-01) (0, -6.10932052135467529297e-01) (1, -5.09289085865020751953e-01) (2, 9.24337327480316162109e-01) (3, -1.57352423667907714844e+00) (4, 1.36658921837806701660e-01) (5, -1.84059410095214843750e+01) (6, -1.47992944717407226562e+00) (7, 1.07351684570312500000e+00) (8, 4.22460794448852539062e-01) (9, 8.38552761077880859375e+00) (10, 1.80586382746696472168e-01) (11, 4.45319384336471557617e-01) (0, -1.40684449672698974609e+00) (1, -2.88260132074356079102e-02) (2, 2.94245183467864990234e-01) (3, -6.55018615722656250000e+00) (4, 9.24420893192291259766e-01) (5, 5.83761274814605712891e-01) (6, -3.78049230575561523438e+00) (7, -1.13547158241271972656e+00) (8, -9.52757000923156738281e-01) (9, 3.28774857521057128906e+00) (10, -3.27910900115966796875e-01) (11, 7.86695539951324462891e-01) (0, 5.39002835750579833984e-01) (1, -6.63402414321899414062e+00) (2, 3.23961824178695678711e-01) (3, 1.20835208892822265625e+00) (4, 1.69306480884552001953e+00) (5, -1.03138506412506103516e+00) (6, -1.88309967517852783203e+00) (7, 1.76356658339500427246e-01) (8, -1.80276072025299072266e+00) (9, 4.94797325134277343750e+00) (10, -1.80145978927612304688e+00) (11, 2.73309379816055297852e-01) (0, -9.94153976440429687500e-01) (1, -1.92780755460262298584e-02) (2, 5.91779947280883789062e-01) (3, 1.53710201382637023926e-01) (4, -1.71021983027458190918e-01) (5, -3.90753000974655151367e-01) (6, 1.09273694455623626709e-01) (7, 1.46635093688964843750e+01) (8, -4.77682971954345703125e+00) (9, 5.00288248062133789062e-01) (10, -4.57612276077270507812e-01) (11, -1.98621642589569091797e+00) (0, 2.33703708648681640625e+00) (1, -1.49694204330444335938e-01) (2, 1.12721862792968750000e+01) (3, -4.71853643655776977539e-01) (4, -4.89891678094863891602e-01) (5, 2.73417457938194274902e-02) (6, 6.09192562103271484375e+00) (7, 2.26237669587135314941e-01) (8, -4.92777079343795776367e-01) (9, 1.06430613994598388672e+00) (10, -2.76576876640319824219e-01) (11, -6.32807314395904541016e-01) (0, -1.09961457550525665283e-01) (1, 6.75391721725463867188e+00) (2, -3.82041871547698974609e-01) (3, -2.71689414978027343750e-01) (4, -7.57309019565582275391e-01) (5, -1.37917947769165039062e+00) (6, -1.12188160419464111328e+00) (7, 2.36323547363281250000e+00) (8, -2.13254243135452270508e-01) (9, 1.25068023800849914551e-01) (10, -1.00840921401977539062e+01) (11, -1.47418618202209472656e+00) (0, -1.79676246643066406250e+01) (1, -1.59651786088943481445e-01) (2, 5.71406245231628417969e-01) (3, 3.71491765975952148438e+00) (4, 1.88151478767395019531e-01) (5, 2.20581245422363281250e+00) (6, -9.63905906677246093750e+00) (7, 1.57917332649230957031e+00) (8, -2.36351147294044494629e-01) (9, -1.80637776851654052734e-01) (10, -1.16232740879058837891e+00) (11, -6.28841817378997802734e-01) (0, 3.01906839013099670410e-03) (1, -2.58903446197509765625e+01) (2, 1.33425006866455078125e+01) (3, -2.80456453561782836914e-01) (4, 2.66531229019165039062e+00) (5, 2.87479400634765625000e-01) (6, -4.20998632907867431641e-01) (7, -5.32968473434448242188e+00) (8, 3.62088751792907714844e+00) (9, -6.97684705257415771484e-01) (10, -4.53875362873077392578e-01) (11, 2.58578419685363769531e-01) (12, -2.60433435440063476562e+00) (13, -5.68956434726715087891e-01) (14, -3.23271870613098144531e+00) (15, -2.40378919988870620728e-02) (16, 1.45524114370346069336e-01) (17, -2.43376776576042175293e-01) (18, 1.16806633770465850830e-01) (19, 1.12918817996978759766e+00) (20, -3.98130607604980468750e+00) (21, 2.55105346441268920898e-01) (22, -5.60085821151733398438e+00) (23, 3.44773268699645996094e+00) (24, 1.34809818267822265625e+01) (25, 5.89892482757568359375e+00) 
